5.939350751097987983e-03
-4.560886902831060574e-01
2.357859106163175122e-01
4.277795916737420767e-01
-4.898708481963623407e-02
-4.622709160355635838e-01
1.992498004433836956e-01
2.190303384769944350e-01
4.877900024090287556e-01
-6.155301844316883875e-01
2.461312134480328137e-02
4.128485642500052608e-03
-7.366620803750298027e-03
-1.133834786001461023e-02
-9.610048030190573506e-03
2.955708879812352780e-02
-2.332460109337794810e-02
-8.849759914343710565e-03
-6.242138338040352161e-03
1.418428914714566251e-03
6.026355340414063722e-05
6.485650107300674778e-04
-8.275641347929134101e-04
-2.984091651993376303e-04
1.105639007051799523e-03
2.989455533928989800e-03
6.295132542920810464e-05
-2.266630446555812674e-03
2.416445796432972054e-02
1.031743563447599238e-02
-2.282605126440278437e-02
-1.130767881042716964e-02
3.206737296570735286e-03
3.339608192389806329e-02
-3.281892417002314072e-02
-7.744925601489691981e-03
6.373513840450504252e-03
-7.367137442219655157e-03
2.302671419199167624e-02
1.312908466581781328e-02
4.772517158378769553e-02
6.055538021859871445e-02
-3.952630738918775505e-03
-4.455569052160359192e-04
-2.766615370497982600e-03
-2.337670843015022886e-04
-1.158933841750059250e-02
2.364806176020588929e-02
8.168850376132155700e-02
1.379345837400347274e-01
9.747280213979066243e-02
4.271972277198831519e-02
-2.687479973524469802e-03
-1.933613911153577976e-03
-1.429913489745735823e-02
1.863717818047936486e-02
-6.179471227396867578e-02
-7.153592242383177702e-02
-1.494367138196777134e-01
-1.621641140638509782e-01
-2.327421256496798804e-02
-6.636271975302282522e-03
5.595599925761590362e-03
1.330793872529234881e-02
-1.129666775151012825e-02
1.901746729023478383e-02
-1.631717923995766942e-02
2.907695494388099974e-02
-3.784792633487903124e-02
2.250331795121036926e-02
-1.427242022931468797e-02
2.004606940539384666e-02
-1.239398011970256099e-02
1.764405587533736386e-02
-2.035301810297336644e-02
2.999485215761231102e-02
-2.017600840188662689e-02
-2.396771517668896262e-02
3.861215191923551143e-02
-1.523284900410764794e-02
-1.616286313901285285e-02
6.977256429179381526e-03
-4.170070173143895081e-02
5.346327170648023513e-02
3.585986909716751270e-02
-1.064387146360857711e-01
5.611650120794157981e-02
4.900079895313150941e-02
-7.945641430189004373e-02
1.858293405318499347e-02
1.714453576786837893e-02
-4.171271300679573087e-03
4.789225182650964268e-04
1.889310597271692555e-03
-3.198001417572759152e-03
7.641374667973133876e-04
1.886574735977851599e-03
-1.955399932026619103e-03
4.572047574692043176e-03
-3.779345977327548570e-04
-2.052224281408644158e-01
1.223044065334003699e-01
1.916101803096437739e-01
-7.205242211506604488e-02
-8.683350033705566906e-02
-2.291383365879923889e-02
1.312620969870491594e-01
2.116450213679937908e-01
-2.764468723014950058e-01
-4.467254444286177439e-04
8.264220641290899796e-03
-1.059385521941563768e-02
-1.682668838174735846e-04
1.117930973449515926e-02
-6.280783878060259770e-03
-4.687158451714543671e-03
3.851609057509960098e-03
3.298516018286761788e-05
-3.557968666186614448e-02
-4.105104981096547798e-03
1.063257794774390315e-02
1.560268824231936073e-02
2.882365057400962686e-04
-4.641183675435608252e-02
4.555254036646150945e-02
7.248147068631936862e-03
2.483210920638031539e-03
-5.083698159778771153e-04
5.338315847401282552e-03
-1.784445808293539911e-03
-1.287045743611963354e-02
5.816771870298967535e-03
3.279194477328490568e-03
9.762847610268542142e-03
-8.524302604973169745e-03
-3.335283729234812377e-03
6.238836445783929076e-03
-1.882466765824877646e-03
-5.343049272779895782e-03
-2.255074023290372810e-03
-5.195888791700689667e-04
-4.446286223791787867e-03
-2.901639991995079090e-03
4.289914851265728621e-03
7.973463611915062102e-03
5.789676216831244476e-03
3.122622796476133555e-03
-9.953318656021729188e-03
-5.160701339352600885e-03
1.080111501137876991e-03
-6.162229164170681360e-03
4.967011961016076955e-03
-7.654335786742559947e-03
-4.792730169813159448e-03
-5.213292943000233902e-03
-1.911604488544384542e-03
9.058441068129991641e-03
1.901022192895911091e-03
-6.259543725489292998e-03
1.140724808160926800e-02
-1.781504288841093782e-03
2.252054063252096402e-04
6.775394091631318540e-03
